[
    {
        "type": "Conv2D",
        "params": {
            "input_shape": [
                3,
                256,
                256
            ],
            "padding": 0,
            "n_filters": 2,
            "filter_size": 5,
            "strides": [
                3,
                3
            ],
            "bias": [
                0.6372678651111708,
                -1.4558716361585287
            ],
            "weights": [
                [
                    [
                        0.11458791293444744,
                        -0.19608088991029965,
                        -0.04784227302196808,
                        -0.1931463925245635,
                        0.49902875816229364
                    ],
                    [
                        0.3016196029237908,
                        1.4386809660102176,
                        0.08683835619354582,
                        0.6276907552142658,
                        -1.493703913621351
                    ],
                    [
                        1.8652979503500435,
                        -1.160116626921157,
                        0.6187561052691127,
                        2.2733888021466817,
                        0.9113575175411422
                    ],
                    [
                        -0.4821517055333695,
                        -0.2413509408008131,
                        0.9616999278129085,
                        -0.9935264589606884,
                        0.41409467493917057
                    ],
                    [
                        0.24376431364579146,
                        0.14702707201015502,
                        -1.2615343905095908,
                        -1.1287645881559796,
                        -0.7280636270082594
                    ]
                ],
                [
                    [
                        -0.18853372511455857,
                        -0.7504190680434581,
                        0.14513569202240093,
                        -1.118116692056358,
                        -0.4815179630032912
                    ],
                    [
                        0.32292280996242984,
                        -2.207341206528844,
                        -1.361066870195579,
                        0.08537600585951353,
                        0.13950934507123022
                    ],
                    [
                        2.2304861738921744,
                        -1.6752861956857388,
                        -0.7289090546892448,
                        -0.6657341531711432,
                        1.1275727144142127
                    ],
                    [
                        -0.4069626662159611,
                        0.724775886794607,
                        -1.4362699315627037,
                        -1.0039714968809492,
                        0.07738166675677387
                    ],
                    [
                        0.1840459105713291,
                        1.3583347587572645,
                        0.933510641210258,
                        1.7122325477643223,
                        1.1502708451998946
                    ]
                ]
            ]
        }
    },
    {
        "type": "Pooling2D",
        "params": {
            "pool_size": [
                2,
                2
            ],
            "strides": [
                3,
                3
            ],
            "pool_type": "max"
        }
    },
    {
        "type": "Flatten",
        "params": {
            "data_format": null
        }
    },
    {
        "type": "Dense",
        "params": {
            "units": 10,
            "activation": "relu",
            "weights": [
                [
                    -0.5841762895831663,
                    -0.15008757157457284,
                    0.1519934219585672,
                    0.4976119874490919,
                    0.0013346696419724638,
                    -0.27222090057882153,
                    0.9927251219752612,
                    1.409869035439814,
                    -0.6652057739483568,
                    -0.8946764034730819
                ],
                [
                    0.36536071512200174,
                    0.020591096589245413,
                    1.8767779575398176,
                    1.2655140858669118,
                    0.4286865939006298,
                    -2.363852731397095,
                    -0.1436425602162456,
                    -1.1629500305845215,
                    0.6426775143574608,
                    -0.22346697758036374
                ],
                [
                    1.552465108690828,
                    -1.2442258867621985,
                    0.1076065203299413,
                    0.5629906557885482,
                    0.20842741774804274,
                    0.7225857282551673,
                    1.1254972625340707,
                    -1.2248238659171629,
                    -1.7930936983526617,
                    1.1225157801408883
                ],
                [
                    0.5344976290004082,
                    0.16628463560261733,
                    1.1189812665042231,
                    0.24812835008904283,
                    0.0068946125022789915,
                    -1.161399197555224,
                    -0.7131399626575654,
                    0.9619920601000567,
                    1.7521842001917776,
                    0.21843213911821296
                ],
                [
                    -0.311644935742473,
                    0.8136876591117483,
                    -0.3134416912345794,
                    0.08511562562930927,
                    1.0318687201471586,
                    0.04874266328858275,
                    0.31653493684272244,
                    -0.24580301737213886,
                    -0.49993189117668885,
                    0.1827414822954388
                ],
                [
                    0.5081770048180393,
                    -0.1837724743588062,
                    -0.13875493931390542,
                    1.0342571491882222,
                    2.029636489605739,
                    -0.8050985088975734,
                    1.3701107061912696,
                    -0.9678866527662102,
                    -0.9248149208282258,
                    -1.1176313191940315
                ],
                [
                    -0.04969201166292789,
                    0.3362840166111397,
                    0.10967714760252159,
                    -0.42536863578903394,
                    1.5083054454026892,
                    0.021884282140191297,
                    0.4599181693098953,
                    -0.3620397717370738,
                    -0.8521097493155302,
                    -1.4449236480945704
                ],
                [
                    0.33889670331018806,
                    -0.6780392738602369,
                    -1.7945168473402455,
                    0.2775516517321387,
                    -0.36818345924841955,
                    1.0859950858126628,
                    -0.6277797661352885,
                    -1.154458255334314,
                    0.035725801706269864,
                    1.1100510283542282
                ],
                [
                    -0.22866611556878103,
                    1.4197362271673983,
                    -1.2027093671363613,
                    0.12573301140683874,
                    0.7594109782412498,
                    -1.1991663696208925,
                    -1.3440174274725798,
                    -1.404425170310169,
                    0.696918191788567,
                    -0.47879461207851065
                ],
                [
                    -0.9468957475397326,
                    -0.46085744395991685,
                    1.9868738525534235,
                    -0.3424123664128981,
                    -0.5850769080539832,
                    -0.2671524024907133,
                    -1.0131146358169782,
                    0.7500634517143642,
                    0.8871102390107769,
                    -1.2594323630482207
                ],
                [
                    1.2776367597772584,
                    -1.543117502355879,
                    0.9306568206986743,
                    0.7371321158512448,
                    1.1890116294883821,
                    0.41426750273122853,
                    -0.14707204358560894,
                    0.36161719294635575,
                    1.0890023427413558,
                    0.07340072425529004
                ],
                [
                    -1.9402071734844384,
                    0.551548123291762,
                    -0.7421275011687553,
                    0.036522776041441433,
                    0.34498104847221134,
                    0.5732673110524221,
                    0.23661230000803646,
                    0.25540224571562054,
                    -0.2314015355201671,
                    -1.0850666921623036
                ],
                [
                    0.9369956269836442,
                    -1.352688776317866,
                    -0.5042618672051684,
                    1.9823578475601245,
                    1.3309751574137545,
                    0.4474729797982155,
                    0.4397748534486782,
                    0.6038362311997895,
                    0.3486039436760088,
                    -1.8649538321982118
                ],
                [
                    -0.2779992954963662,
                    0.5714528582195245,
                    -0.8066456817198251,
                    -0.05243492908833118,
                    -0.7672157135416562,
                    -0.8038820596480829,
                    0.4629306434690858,
                    0.04208977732151205,
                    -0.7360766281102309,
                    -1.214693688875593
                ],
                [
                    -0.6617936927846881,
                    -0.00625111334362039,
                    -1.3662070467396448,
                    0.2692743529749077,
                    -1.2427982213473618,
                    -0.05208392087868148,
                    -1.0258695034924843,
                    0.7560887059082932,
                    1.0213116134903015,
                    -0.9053595396472816
                ],
                [
                    2.6723293853553223,
                    1.13626896057246,
                    1.7112982314897518,
                    -0.11732693283462485,
                    0.4152973346359873,
                    2.277631639462591,
                    -0.7707799778921953,
                    -0.7355024099677355,
                    0.8979814924163553,
                    -1.1419509284170561
                ],
                [
                    1.4973533920366824,
                    0.2342984918249442,
                    1.260244035000803,
                    -0.42495628069809804,
                    -0.18356844261056424,
                    1.104584894684166,
                    -0.951987711413233,
                    -0.8987311883832071,
                    -0.8270683939483556,
                    0.4149791689338831
                ],
                [
                    0.5695663598984326,
                    -1.1246089653218165,
                    0.7420149839708765,
                    0.1420547408051335,
                    0.2579046909049648,
                    1.1002718298536522,
                    0.4929045154598268,
                    0.9935844415527939,
                    -1.1356864533460682,
                    1.0324924340541335
                ],
                [
                    -0.24866917389374477,
                    -0.7556510378345981,
                    0.9735333719486321,
                    0.4515991381518436,
                    0.6873386252509488,
                    -0.05935214659211119,
                    0.3661368260140141,
                    1.0265671799524128,
                    -0.4292121685776353,
                    -0.5357297954891054
                ],
                [
                    -0.13630015720706856,
                    0.34911932003763374,
                    -0.2286807061019233,
                    1.0087359668008538,
                    -1.401316861690085,
                    -1.0649231971512807,
                    1.0354043870718428,
                    -1.3312843420553626,
                    0.21055318762856345,
                    -0.03398233887498821
                ],
                [
                    -0.3495139716052712,
                    -0.9765008240357954,
                    1.2676639745665585,
                    0.29327476671203434,
                    -0.5635671120142818,
                    -1.518998929359461,
                    -0.34022380471283886,
                    0.2599048855146676,
                    1.206753811634049,
                    1.3206975396190719
                ],
                [
                    -0.08416660482312079,
                    0.6344020601869838,
                    1.402107017065656,
                    -0.817103437790906,
                    -0.7888751513215823,
                    -1.676513423902062,
                    0.84067059642472,
                    0.34342387385069234,
                    -0.461024044266117,
                    0.49045882294165755
                ],
                [
                    -1.3681880440738252,
                    -0.35001441331717625,
                    0.17818855147427734,
                    -0.07049119531509362,
                    0.2962570993981644,
                    0.30608899083445695,
                    -1.9350571845351945,
                    -0.5894661641702473,
                    1.7843335519679393,
                    1.9769809659391036
                ],
                [
                    -1.5430778504032778,
                    1.2193134007684903,
                    -0.43433451080569757,
                    -0.7502720251912661,
                    0.027998251012266002,
                    0.9266971000544072,
                    -1.0023432015520233,
                    -1.3191462080221426,
                    -1.0011642953196458,
                    -0.056527271735246735
                ],
                [
                    -0.1381705896760868,
                    0.16017524618178391,
                    0.05944742523658797,
                    -0.8571457652291041,
                    0.6954041933581154,
                    -0.10827967728629018,
                    -0.5844786259450011,
                    0.34483608235215446,
                    -0.1744058059458345,
                    -1.30756049355204
                ],
                [
                    0.5565366754690612,
                    0.607323091887826,
                    0.6592747406365589,
                    2.7542530811250017,
                    0.05702209216730536,
                    -0.6547127553406474,
                    -0.32989173594086474,
                    1.5286542760637112,
                    0.6360595078889737,
                    0.226016438373194
                ],
                [
                    0.18263661941479656,
                    -0.540677799757031,
                    0.011725505570626222,
                    0.5397740017140741,
                    0.5961954328093956,
                    0.9180753450298582,
                    0.4282074327548435,
                    0.15654501791781003,
                    -0.43718707785071487,
                    0.20555682156772145
                ],
                [
                    -0.7267526179821405,
                    1.1100541650080948,
                    0.9371806789609869,
                    -1.140734333836286,
                    0.8919422415123519,
                    -0.5243131124135376,
                    -0.9740280632996557,
                    -2.2893367289048823,
                    2.1611093950061484,
                    -0.5057280507057768
                ],
                [
                    1.0130927205484175,
                    -0.45080279852348093,
                    -0.7531733761698425,
                    -0.45532493571897503,
                    -1.2275682105343662,
                    1.5345274559563233,
                    0.6932706032642892,
                    0.6722412419153684,
                    -2.713904889421813,
                    -0.5795442261920529
                ],
                [
                    -1.1915102116097203,
                    0.49790685455000777,
                    2.0462055539721056,
                    0.7906608692050725,
                    -0.5778538539435893,
                    0.3066478897026345,
                    0.17081443502951504,
                    0.08524746001417481,
                    -1.7062176004122014,
                    0.9877418582791994
                ],
                [
                    -1.228097698926492,
                    -0.7998351000675533,
                    2.185738550706947,
                    -1.9644358293170108,
                    -1.1087000684232244,
                    -1.23219709218365,
                    -1.679420290077185,
                    1.6196156833368704,
                    0.16965013669718096,
                    1.057901205317053
                ],
                [
                    -0.45242572571065115,
                    -0.4417913918549874,
                    -0.9759456110942473,
                    0.2674863914231362,
                    1.1583604603425743,
                    -0.3370056839089059,
                    -3.09659135817712,
                    -1.3172527132253842,
                    -0.345410163012516,
                    0.7835630907384141
                ],
                [
                    0.5264386264800538,
                    -0.8355263118714256,
                    0.9459039292216703,
                    0.007693421003216094,
                    -0.6636368302174847,
                    0.4236894246225547,
                    -1.070782506010347,
                    0.24152543084972175,
                    -0.0016618462642214835,
                    0.6044401350020734
                ],
                [
                    -0.31080909225508957,
                    -1.3525287356760185,
                    0.3116408182505352,
                    -0.901142739866655,
                    -1.0660894231121207,
                    0.080663286501307,
                    -0.3082876144186963,
                    0.19713870538547523,
                    -1.6564574094933666,
                    -0.5333810848607842
                ],
                [
                    -0.4534146279988063,
                    0.8339760121506501,
                    1.6165095086296768,
                    -1.775871594104302,
                    -1.2583812411211257,
                    -1.3044994549311189,
                    -1.3616481143365327,
                    -0.25191176769053514,
                    -0.40699425469431033,
                    0.6998360491821464
                ],
                [
                    -0.6902808259322734,
                    0.19098354621342084,
                    1.8624160020206038,
                    0.8074664804524118,
                    0.7727118952942014,
                    -1.0692028724073377,
                    0.9801619184210852,
                    -2.3042913106498357,
                    1.4730810139025663,
                    -0.254369141718443
                ],
                [
                    -0.23215494523508232,
                    -1.0682233497454852,
                    -0.19838330471401877,
                    -0.06335461034798899,
                    -0.3331035251765878,
                    0.1731340396316937,
                    2.183802441456002,
                    1.4040734456910624,
                    -0.24920185788499818,
                    0.6824833476591229
                ],
                [
                    -0.7899241173557378,
                    0.24396538238172888,
                    1.122300313088623,
                    -0.5737980563655986,
                    1.9280855455589208,
                    0.8770440545664813,
                    0.3004762963377434,
                    0.726505131568166,
                    -0.4139973047993015,
                    -0.8310894042929687
                ],
                [
                    0.12397129232963462,
                    -1.2321407395823316,
                    -0.19369016415480264,
                    0.40368189036915675,
                    -0.09954888546763613,
                    -0.45490863751979144,
                    -1.8558864264488302,
                    0.2315604480688791,
                    0.6243037190715011,
                    -0.29978485552257084
                ],
                [
                    1.319110276262938,
                    -1.071439604219084,
                    1.791314726051722,
                    0.6405258261905024,
                    0.5615631260321914,
                    1.2627429096819651,
                    0.7167239517391893,
                    0.530106773874714,
                    1.7668356034912174,
                    0.4224241994812334
                ],
                [
                    -0.034322997291563476,
                    1.2386133704941864,
                    -0.3451965809360609,
                    1.1849927182420186,
                    -2.032687820081063,
                    -1.3960544893326605,
                    -1.7142149737677683,
                    -0.837289522430168,
                    0.5586462848143019,
                    0.4927080523838477
                ],
                [
                    1.3918145286662311,
                    -0.46836781060532207,
                    -0.14750730253467173,
                    0.17626152196654815,
                    0.22818216614705028,
                    0.1386165909414831,
                    -0.1681447008589079,
                    -0.146402971973441,
                    -0.39963903884005475,
                    -0.2376567620617165
                ],
                [
                    -1.5728965195959255,
                    0.3695908673472215,
                    1.0456300871242754,
                    -0.5584063304392344,
                    -0.2720293407500515,
                    -0.5875752968286362,
                    -0.3377337625192998,
                    -2.108296292987737,
                    0.6460454522108816,
                    -0.8288724584038281
                ],
                [
                    0.2931283565596613,
                    -1.7460374731383455,
                    0.9889045755720758,
                    -0.47202831533116785,
                    1.0802256723381258,
                    1.3495993091102976,
                    2.030313631453398,
                    -1.0945462588992143,
                    -1.5926748333220857,
                    0.09594833255842587
                ],
                [
                    0.7828098289319342,
                    -0.6343366404809845,
                    1.9812381141281297,
                    -0.010494248674670175,
                    -0.3242908902870895,
                    0.3510827258389136,
                    1.4726707657519984,
                    -1.566823880172192,
                    -1.281680848388566,
                    0.14432426417081987
                ],
                [
                    -1.6736390678048576,
                    -0.11312286936387468,
                    1.6177470125712732,
                    0.21395373869912956,
                    0.005321073662333611,
                    0.25465478409654674,
                    -0.17202461182595877,
                    -0.5878081868967739,
                    -0.14204490019442645,
                    -0.2355278132195796
                ],
                [
                    0.29261327716920166,
                    -1.0190562343736977,
                    -1.300427175218928,
                    -0.01053767727761653,
                    0.5647309290762635,
                    -1.0518552931100527,
                    -1.7473029355310457,
                    0.21241913785594063,
                    0.7990090137801905,
                    -1.3997507575552428
                ],
                [
                    0.4312529381283312,
                    0.4760546512589678,
                    -0.6889967563051327,
                    0.9644836871229974,
                    -0.9135371150445646,
                    0.9485885832696638,
                    1.796742476512779,
                    -0.8680920957629238,
                    1.1889230884942514,
                    0.5161094007446283
                ],
                [
                    -0.6767201561308803,
                    0.182576559050455,
                    0.4167592831557706,
                    -1.7294468350600958,
                    0.42511732949967784,
                    0.3593271448796424,
                    -0.27903544350879556,
                    -0.5816459637148476,
                    0.6970086273191746,
                    -2.1697694199095894
                ],
                [
                    1.0307401788471253,
                    0.1870382286068521,
                    -0.05339408706444425,
                    -0.8377180690099734,
                    0.6044396563349654,
                    -1.177618167658386,
                    -0.2074201254830762,
                    -0.010461840422528582,
                    -1.1046676982631627,
                    0.397507895524598
                ],
                [
                    -1.4715625370247787,
                    -0.8942139589294823,
                    1.9190183663511526,
                    1.132880433623214,
                    -0.45095510090139695,
                    -0.5060215500959953,
                    -0.503134692431964,
                    -0.25232589527843957,
                    -1.0260320792729851,
                    -1.3299059513943523
                ],
                [
                    1.9388843741192983,
                    0.5631913027630621,
                    -0.7023688215719539,
                    0.0294528591797892,
                    1.3118633339331403,
                    -1.0687863246307718,
                    0.21481575461100721,
                    -1.82208374699168,
                    0.6356824014384128,
                    0.888220667472238
                ],
                [
                    -0.42220272479615784,
                    0.14927707192605233,
                    0.6848146508066235,
                    -0.5892601605877495,
                    -0.4675266911660577,
                    1.1129799904466178,
                    0.4877398192194616,
                    -0.13010163864759924,
                    0.005910059649014177,
                    1.3335192787282586
                ],
                [
                    -0.39936828583691825,
                    -1.9318083145638707,
                    0.020464523778831754,
                    -0.577772805065143,
                    1.3065768920006873,
                    0.07258695554917093,
                    -1.471726500442701,
                    -0.2722246408078996,
                    0.9350319318621628,
                    -1.4327531690923168
                ],
                [
                    -0.5572341872911082,
                    -0.8913743205183837,
                    -1.087336577862531,
                    -1.6515076025235405,
                    -0.7729684492287705,
                    -1.009155642262862,
                    -0.5159799957554194,
                    0.34014681711973854,
                    0.5753769363058491,
                    -1.1238827960144642
                ],
                [
                    0.21819010796166724,
                    -0.4162112383331929,
                    0.7806068032589962,
                    -0.5904651777577573,
                    1.7298220574203793,
                    0.3118022001184315,
                    -1.1143022733994445,
                    0.23181958641775516,
                    -0.5880876566140989,
                    1.1007131061867295
                ],
                [
                    0.39201861782781555,
                    -0.8536574739526271,
                    -0.843110421956997,
                    0.04512063511521498,
                    -0.7334212177285205,
                    -1.4812401800036543,
                    -0.39277752573702174,
                    0.7006482527248336,
                    0.12511502149164505,
                    -0.2774884991381071
                ],
                [
                    0.8912093674480746,
                    -0.8736505299440146,
                    0.2704237056129297,
                    0.32366235495099643,
                    0.405732691453954,
                    0.15559487001273337,
                    -0.5648314862027763,
                    -0.10350534768990098,
                    -0.8099461579244733,
                    -0.45876069053476526
                ],
                [
                    0.34769740715591646,
                    -0.5738794306787215,
                    0.8388364375789283,
                    0.544045037870748,
                    -0.10992565031824468,
                    0.34383961629454124,
                    -0.2794758513493529,
                    -1.4003870693045994,
                    2.024734589111969,
                    0.27220352654455565
                ],
                [
                    -0.6776098670014812,
                    -0.5159048821994562,
                    -0.5952607040002703,
                    -1.4892751200743826,
                    1.4546929516446738,
                    -0.19416605234223513,
                    1.2121079045449692,
                    1.2820979015662626,
                    0.2482200689280607,
                    -0.6454661376875843
                ],
                [
                    0.6585186703962492,
                    1.185619190217375,
                    1.018654076119721,
                    -1.0235945149484027,
                    1.737697111216396,
                    1.9872380666176588,
                    0.7805574776186817,
                    2.723469729039953,
                    0.7446310016965046,
                    -0.5111240564963794
                ],
                [
                    -0.2817274722236577,
                    0.7377158871051366,
                    2.5972412041425565,
                    0.2283208569266863,
                    0.45731946122950246,
                    -1.6077907551727675,
                    -0.1793476957787217,
                    2.26375265933328,
                    0.3836439761763985,
                    0.8179966841199617
                ],
                [
                    1.6224355022134185,
                    -1.9030850149198222,
                    0.41889977001476175,
                    -0.15160584216508793,
                    0.2582384682075445,
                    1.109389583887287,
                    -0.2820799884437649,
                    0.10901735645328643,
                    0.7580363295800343,
                    -2.395685564753789
                ],
                [
                    0.9708444199824732,
                    -0.511623223283061,
                    -0.8229203313774233,
                    -0.038635447066319197,
                    -1.527110705618304,
                    -0.46302826382850476,
                    -0.6530836347562726,
                    0.2638086212821499,
                    -0.6881398887031894,
                    0.11458404165829139
                ],
                [
                    -0.18734426648710067,
                    0.4973939791447035,
                    1.8112505117715958,
                    0.7530071180207233,
                    -1.1332580192658626,
                    -0.03513742895938264,
                    0.009491545866606606,
                    0.11895876019290189,
                    0.5830252815371862,
                    1.9233293418604696
                ],
                [
                    1.0554537974150957,
                    0.2647934696902035,
                    -0.3236712586693644,
                    0.603973677989593,
                    0.9620342366568947,
                    0.3109710544200657,
                    -0.02501107950546424,
                    0.5562462605073972,
                    -0.9918974504008947,
                    -0.9682434394989871
                ],
                [
                    -0.22054438489092804,
                    -0.4335596228891129,
                    -0.30001353102391526,
                    -1.5185973691091337,
                    0.5080097840406828,
                    1.1083769063623068,
                    1.8414031534791306,
                    -0.8233331908395926,
                    0.5590159215842204,
                    -0.10725823397019152
                ],
                [
                    1.2168495798913228,
                    -0.6511327034811746,
                    0.6356232112253354,
                    -0.14476570110408646,
                    -3.0879149077173698,
                    0.7485907521451617,
                    0.37581157311982166,
                    -2.0432206974816496,
                    -0.2575387379295074,
                    -0.7472656534548346
                ],
                [
                    -1.4892932838476989,
                    1.045276832209394,
                    0.18546157920049824,
                    0.7394328033920619,
                    -0.8176037087125622,
                    0.6952093557516315,
                    0.7250617350920715,
                    1.4162370601211773,
                    -0.3490298617022339,
                    1.062963411962981
                ],
                [
                    -1.1787947329179078,
                    -0.9769683440968473,
                    0.7932885325566492,
                    -0.6174907022106311,
                    0.926218894160725,
                    -0.4573870559187003,
                    -0.40446944999302337,
                    1.5224871310707078,
                    -1.744017948760272,
                    -1.253552953316991
                ],
                [
                    0.29214168496190884,
                    -2.827848948708997,
                    -0.6476634100490001,
                    0.40388810545759374,
                    0.12620106492171201,
                    0.6427775101867226,
                    1.258762937640247,
                    -0.4317468252438394,
                    -0.6209765321288218,
                    -0.21435023903917638
                ],
                [
                    -0.61322385845024,
                    1.6209267897339514,
                    -1.26629174228478,
                    1.0281131574774725,
                    -2.954912399956477,
                    -0.672133523156877,
                    1.1333881619450874,
                    -0.6161528177467739,
                    0.07407708839873117,
                    -0.3570246201272152
                ],
                [
                    1.3361764440055262,
                    0.3151237367176958,
                    0.3207530581198029,
                    -0.9725809030465792,
                    -0.9300870967159295,
                    -0.6003055397398941,
                    -0.09619020332533451,
                    2.0090876203682706,
                    0.015512414487552922,
                    2.1160716516260254
                ],
                [
                    1.2968916640662167,
                    0.5632203837208984,
                    -0.8038684242657113,
                    -1.7564224574091722,
                    -1.508139731649076,
                    -0.394956085183878,
                    -2.58278446897027,
                    0.4691999258937325,
                    1.2349633203424393,
                    -0.6324702325047696
                ],
                [
                    1.540545710060387,
                    -0.576646929229351,
                    -1.0111820491905306,
                    -1.3300149245342723,
                    -1.8924323399004568,
                    0.7380487992335787,
                    -1.0224051935259424,
                    0.6718353220620263,
                    0.6160305377941904,
                    0.460023603942522
                ],
                [
                    -1.1349227390947123,
                    -0.2159962271684486,
                    1.245078130734315,
                    -1.1058337803528473,
                    -2.0122142799037888,
                    0.17884960663388363,
                    -1.372462919825691,
                    -0.22384611927549322,
                    0.37111692902807586,
                    0.35015801890249665
                ],
                [
                    0.9963752754873504,
                    1.774651178748556,
                    -0.5993470420947565,
                    -2.697858542939865,
                    0.08629503369337467,
                    0.9302812198156303,
                    0.8806039925406732,
                    -0.8579807128561091,
                    -1.515841030305003,
                    0.0864754626301626
                ],
                [
                    0.21301508842488995,
                    0.10322853090948869,
                    -0.4554549105807033,
                    0.4491443778461445,
                    1.4940235243750135,
                    -0.8928088085040519,
                    0.5141588725635482,
                    -1.4289846279967426,
                    1.1255875561263526,
                    0.8549558446180918
                ],
                [
                    1.095039997608246,
                    -0.014616775476353204,
                    -0.9276663319999305,
                    -0.43622631594912115,
                    -0.6014375479435823,
                    -0.25759005609177965,
                    0.012051029903423983,
                    0.652150305679844,
                    1.7708471854363868,
                    0.11338466612352927
                ],
                [
                    0.19577969430312278,
                    0.42628604579089413,
                    2.0389545018351463,
                    -1.3042399712595272,
                    0.9896942904803349,
                    -1.697568297182799,
                    0.13812533505863434,
                    -1.8931401923517732,
                    -0.6703319175022576,
                    -0.815154181183975
                ],
                [
                    -2.199952563761752,
                    -1.4539114463394507,
                    0.7584718587514642,
                    1.2681738428912974,
                    -0.05168610435470033,
                    0.08343905539810414,
                    0.6614515887710359,
                    -0.031210579486823223,
                    2.139586279171201,
                    -0.017958250080187355
                ],
                [
                    -0.3020276438762493,
                    -0.21711640366980722,
                    0.33789079933549715,
                    0.29334789711149084,
                    1.0997338846417894,
                    -0.34988892952218814,
                    -0.6286482537673919,
                    -1.0701882839561796,
                    -0.19649402721146317,
                    0.176676344118844
                ],
                [
                    -0.34318191621082755,
                    1.5887821146679773,
                    0.9430663216264928,
                    0.24459358085252575,
                    0.6435010942299747,
                    1.0378385347469243,
                    -0.1247042369608072,
                    0.5126523749173046,
                    1.0030712598624887,
                    -1.2613653038596198
                ],
                [
                    -1.4237420927775157,
                    1.421796046019203,
                    -0.6551497963946508,
                    0.27056833200677444,
                    -1.00962826579148,
                    -0.028558107296510767,
                    -0.3433494405666801,
                    -0.03351230386028845,
                    0.4927751038962596,
                    1.129799382933345
                ],
                [
                    -1.0728032845637352,
                    -0.5044679960969902,
                    -1.146573614530945,
                    0.5259439084432493,
                    0.05281533668083998,
                    0.38140356254802765,
                    -0.27297028592947964,
                    0.3396799415869113,
                    -0.41268373704488104,
                    0.6830047702485147
                ],
                [
                    -1.8706774521937255,
                    -0.325156687251106,
                    -1.4143100266487325,
                    -1.0048621162517224,
                    -0.3913825560870074,
                    1.6357269324631072,
                    -0.06383186070879839,
                    -0.9468232305325555,
                    1.2714129516509323,
                    -0.11501461503024175
                ],
                [
                    -0.16691519315188286,
                    0.27866665984828415,
                    -1.1753405504174106,
                    -2.232651783692534,
                    -0.9639220585195345,
                    1.115382882991095,
                    0.7858133845114175,
                    -0.8683005435748177,
                    -0.29671363705794024,
                    -0.7309073109412805
                ],
                [
                    -0.175261133654436,
                    -0.974058098968021,
                    -0.607222445526583,
                    1.6987851530090634,
                    -0.9296691957594634,
                    1.0768439038056814,
                    -0.6281091482014863,
                    1.5922020431944954,
                    0.658026393530155,
                    -0.7807664228736618
                ],
                [
                    2.2262217882115385,
                    0.21746450512896273,
                    1.0437389280194405,
                    -0.16419348408410364,
                    -2.457938920124712,
                    -1.140145947389237,
                    0.015430495789820293,
                    -0.1471497829834079,
                    0.44466962926575404,
                    0.16358578775167257
                ],
                [
                    1.4898831766143468,
                    -0.3042178145632247,
                    -0.0995449244525658,
                    1.1735782628585807,
                    1.421531341834492,
                    2.121049896871041,
                    0.07031898480137065,
                    1.015685607943321,
                    0.7264758522860005,
                    1.7941265465596679
                ],
                [
                    1.3458214985772565,
                    0.9061284917698695,
                    -0.5293138799666548,
                    0.6614482970779265,
                    -0.20950988895375153,
                    -0.5938464961430907,
                    -0.5619081743401512,
                    -1.6695141123235657,
                    0.5539758543197237,
                    -0.5608080440493433
                ],
                [
                    -1.221764953493293,
                    1.7646964146784891,
                    2.0048686554153643,
                    -0.565498288686179,
                    0.7389850321667436,
                    1.038593349970422,
                    0.9268101971357724,
                    -0.18773471320773608,
                    -0.35761267421585174,
                    1.2582481435244426
                ],
                [
                    0.7545301071061102,
                    -1.1829176899301297,
                    0.4845609129108533,
                    1.490814329524523,
                    -0.5101474837413114,
                    1.3686721136333184,
                    1.402234886507981,
                    1.4671625077734787,
                    -0.5355012728946587,
                    -1.2822947436450634
                ],
                [
                    0.03132548900396329,
                    0.5059276072253105,
                    -1.3253118332124199,
                    0.08516968592847331,
                    -0.6401150446953293,
                    1.2465327339015666,
                    -1.7745302622543855,
                    -0.12516327024401158,
                    -0.17981903332246696,
                    0.2569228414661816
                ],
                [
                    -0.27822952290160274,
                    0.46048757625295966,
                    1.1652163136577696,
                    0.7381386054431441,
                    0.5732873475256515,
                    -0.13833962724257837,
                    1.0129305307491672,
                    -1.8076696260161362,
                    -0.04629990528616653,
                    0.6404715338578436
                ],
                [
                    0.1967723524652504,
                    0.6486610309681423,
                    0.7362214706877097,
                    0.05612556295821012,
                    -1.4911627228541793,
                    1.1555168530119575,
                    -1.3926471907611517,
                    0.966830445194115,
                    1.3150148780320492,
                    -1.7418299816090606
                ],
                [
                    -0.8159927164224583,
                    1.4541701262411426,
                    -1.3851398652136215,
                    0.8825187787710131,
                    0.5684231790061568,
                    -0.4042943008146058,
                    -1.0967149629014352,
                    0.5848895043574819,
                    1.4505980177378996,
                    1.3642612470754136
                ],
                [
                    -2.0747759390377327,
                    -0.03180987539373231,
                    -0.8606466476841744,
                    0.2705478411581067,
                    -0.450644675280285,
                    0.5385669184548979,
                    -0.9638927576747235,
                    0.5198344450878669,
                    -2.173632830898186,
                    1.1645868207658354
                ],
                [
                    -0.23736511146792819,
                    1.1102903356098903,
                    0.4118971793364381,
                    -0.8060728533133222,
                    -0.4025468811289765,
                    1.5757632757650122,
                    0.6049614413329399,
                    -0.2509398025853396,
                    -0.5232507261540347,
                    1.566712658659693
                ],
                [
                    -0.12115310760715722,
                    -0.8132781378437234,
                    1.4286004209302403,
                    -0.44588557296782094,
                    0.6723661353573523,
                    -0.4803559388267982,
                    0.19554948437584485,
                    1.0741719802724299,
                    0.025558307311210737,
                    -0.7450928132214516
                ],
                [
                    -0.07212820846511193,
                    0.038641289467464354,
                    0.4393519729350396,
                    -2.1309341163983637,
                    -0.6991609746744845,
                    1.7542996927836791,
                    0.004918294853162835,
                    -1.6406933018899985,
                    -0.8628868601853399,
                    0.7749383021935115
                ],
                [
                    1.9139787009440397,
                    -0.4983654005955892,
                    -0.6900229716538371,
                    1.2877118212049574,
                    -1.269517702455914,
                    0.7172610932626267,
                    -0.1763976970984606,
                    -0.4015102880084533,
                    0.17004250514205493,
                    0.7771870822590824
                ],
                [
                    0.7229818570001197,
                    0.6603890453473255,
                    -1.1365191601664353,
                    -0.9098963158869388,
                    -0.762453529537138,
                    1.8914192177192821,
                    -1.8181530685252,
                    1.0623769102509015,
                    -0.06401729602561285,
                    2.674741091121953
                ],
                [
                    0.8239723777568145,
                    0.007754559759674294,
                    0.1490112577566143,
                    0.6743279297704388,
                    0.06270932176558003,
                    0.4407440351326814,
                    -0.7258321914800488,
                    1.1002666300434416,
                    0.6542509567510648,
                    0.4442498863019677
                ],
                [
                    -0.5515649949047515,
                    0.20264012860835293,
                    0.3596786865939611,
                    -1.5448232370805934,
                    1.1296059460497907,
                    -0.25711085714536397,
                    -1.134462012581416,
                    -0.9803337736874671,
                    -0.27486577679847873,
                    -0.17754957684895536
                ],
                [
                    1.0852925122546777,
                    -0.10965197004813121,
                    0.416199944268116,
                    2.6372532625702023,
                    0.19584564037843685,
                    -0.5432148120174557,
                    -2.0420349568503786,
                    1.7948473570155365,
                    -0.2776516036086968,
                    -0.3420677227183037
                ],
                [
                    -1.5755872776713995,
                    -1.3105186221038474,
                    -0.6343019258573303,
                    -0.21679096377577126,
                    1.0448704984113077,
                    -0.8387777257936656,
                    -1.7889844481148902,
                    -0.34344062059817754,
                    -0.9022551131062833,
                    -0.6141823560583929
                ],
                [
                    0.6633884526253468,
                    0.4768474739506651,
                    -0.19741560920354453,
                    -0.22130637574384118,
                    -0.17593517982684867,
                    -0.5571207640189747,
                    -0.36825604565360887,
                    1.6152190795519703,
                    1.0169058947325709,
                    -1.5213581733640456
                ],
                [
                    0.4599812119240957,
                    -0.9878975089596025,
                    -1.3781599668565552,
                    -1.2766066956417979,
                    1.2674216911664404,
                    0.828818753743092,
                    0.7580964658850166,
                    -1.9922883739935753,
                    -0.8051119958306523,
                    0.5289761785788958
                ],
                [
                    0.19593904384098795,
                    -0.03745631161364626,
                    0.03349919429465033,
                    1.9455268459186943,
                    -0.48767886419368617,
                    -0.3395650225540848,
                    -0.06685468594365519,
                    0.2921420259720992,
                    0.346336471056031,
                    -0.31410116024840196
                ],
                [
                    0.16124520100165723,
                    -0.7954015469111797,
                    -1.7951456091776783,
                    -1.0207208780885808,
                    1.1684638262879146,
                    0.9739084331664555,
                    -0.466190360770794,
                    -1.6380475398745948,
                    0.34461974588158023,
                    -0.40210732361465346
                ],
                [
                    -0.7783416187901245,
                    -0.8273162465446031,
                    -0.10229524912063769,
                    1.1225873927315801,
                    -1.0871248250092604,
                    -0.5765116484231055,
                    0.4977752744499416,
                    1.7587017877785636,
                    1.4453647157392289,
                    -0.36246900802647164
                ],
                [
                    -0.05013693186834974,
                    1.0950765232767639,
                    0.8640915444196996,
                    0.6338424882546703,
                    -0.02299351429856893,
                    0.6171978858974909,
                    -0.2407321100663413,
                    -1.0883919032627125,
                    0.9577192180998827,
                    0.45879319020922893
                ],
                [
                    2.033711255577904,
                    -0.6097549829463341,
                    0.078616471559828,
                    -1.649456711215345,
                    -1.4330484409733846,
                    0.19502743788006335,
                    0.3315766077878825,
                    -0.2122481289645338,
                    -1.0211862040216655,
                    1.6766896617516334
                ],
                [
                    -0.9173164415323414,
                    0.5853527154297018,
                    1.8818705678106045,
                    -0.12291346828372575,
                    -1.385306915727092,
                    -0.5388618636754544,
                    -0.1006647821792778,
                    -1.6861294154952806,
                    -0.6887860263126429,
                    -1.2206486270354637
                ],
                [
                    -0.12218132173442313,
                    -0.9816436646255711,
                    -0.8237951024961417,
                    0.8162292692511813,
                    -0.9171294497077563,
                    -1.181310253638804,
                    -0.8081327414269642,
                    1.6235811354576473,
                    0.17182703568822486,
                    -0.2913814744511015
                ],
                [
                    0.281850170606411,
                    -1.106542988187596,
                    -0.5379989732920227,
                    1.0008791246089483,
                    0.7308330930969549,
                    0.7471102034477406,
                    -0.3065080820984986,
                    0.8498859275174535,
                    -1.5675922697168643,
                    0.40461019554493394
                ],
                [
                    2.188124593320891,
                    -0.4250063924721037,
                    1.3360315582350508,
                    0.26945112477830907,
                    0.30232302010174283,
                    1.3853879759034164,
                    -0.02116140879830677,
                    1.8594472088025136,
                    -0.27239996241730374,
                    0.23287477759536032
                ],
                [
                    -0.14618610335541157,
                    1.4027178904424624,
                    0.04157060898926723,
                    0.10139776131587953,
                    0.9173983679524258,
                    -0.7870168147510708,
                    -1.4191423871605593,
                    2.8149710609702177,
                    0.7177607343529621,
                    1.1007859493490724
                ],
                [
                    -0.5877040562751012,
                    -0.8984325567382518,
                    0.40725045768130963,
                    0.05998675820940403,
                    -0.7128718659533303,
                    1.7766833304269303,
                    -1.141726655496717,
                    1.018231575336662,
                    -1.1061026956720883,
                    -2.041269259070726
                ],
                [
                    -0.6464717105593621,
                    -0.8934952892933833,
                    -1.0184833521454622,
                    -0.1120710650240406,
                    0.05110015480543574,
                    0.5713166830330444,
                    1.4031864846801652,
                    -1.1495013795017752,
                    -0.014145622289524476,
                    0.8812976392662911
                ],
                [
                    1.339400578658177,
                    2.1630557501005074,
                    2.6174941681432466,
                    -0.0895175883177025,
                    0.6678879019568515,
                    -1.4800991348409842,
                    0.9298178271000084,
                    0.7452247846426103,
                    1.3913601059963248,
                    -1.569288242619112
                ],
                [
                    0.48849613518340235,
                    -1.2013081964331551,
                    -0.3919929234266397,
                    -0.16930181071419173,
                    0.9927610165582433,
                    1.071402493207113,
                    1.0089906855636623,
                    0.2489738303138675,
                    -0.12729166584277127,
                    0.41565190920651607
                ],
                [
                    -2.714814681770759,
                    0.8116279563825938,
                    -0.15259944398422956,
                    0.4611991803070944,
                    1.8307427708050004,
                    0.17949434151077204,
                    1.1656110071659036,
                    1.1361030069830182,
                    1.2476322090228225,
                    -0.6547176547020531
                ],
                [
                    -1.4804745059565068,
                    0.32959913000910784,
                    0.9866473684687863,
                    -0.9387342582691329,
                    -1.751335503951461,
                    -0.47710778540515725,
                    0.7230829288161186,
                    -0.49751494811570646,
                    -0.6083288004552734,
                    0.7812500402597796
                ],
                [
                    -0.041062043572332674,
                    0.9065182572594245,
                    -1.265566097309512,
                    -1.2762160882058176,
                    0.5264264819376674,
                    0.20700410130576777,
                    -0.45556919347431074,
                    0.11407020527444163,
                    0.963121969710856,
                    -0.2542591032312317
                ],
                [
                    0.6521101175803605,
                    -0.3243182032492456,
                    -0.3063138685394426,
                    0.5120796409627704,
                    -0.103810700464004,
                    -0.8459920919981369,
                    0.3102267753066915,
                    -0.48686373450679243,
                    -0.015155190509303076,
                    1.0240740783562874
                ],
                [
                    1.6200550893003403,
                    -0.07756892873721044,
                    -0.1779788686938762,
                    -0.07889782305877194,
                    -0.9601570303253358,
                    -1.160008002663716,
                    -0.8155514696946562,
                    0.17769870481367278,
                    -0.5117277126399394,
                    -0.34555071891054157
                ],
                [
                    0.9088945088262571,
                    -0.2815341549675563,
                    0.8187235513761935,
                    -0.3411283775628969,
                    -1.3835459973409343,
                    -1.088653172636958,
                    -1.4378814521397487,
                    -0.6043824983424868,
                    1.1675369436183551,
                    -0.9035254673410249
                ],
                [
                    0.602466383733696,
                    -1.8104027151573985,
                    -0.3533612054505767,
                    0.4862539635799901,
                    0.9160706303547801,
                    -0.8308318574435807,
                    -0.23658297347486418,
                    -0.6653405985348955,
                    0.4044483689387441,
                    0.09571745793376192
                ],
                [
                    -0.20961843026534224,
                    0.07780402213956869,
                    -0.13453787350014587,
                    -1.1736422389822192,
                    0.7255804080871114,
                    -0.6024258454563751,
                    -0.7139347311444205,
                    0.5128316336260877,
                    0.24245589413742658,
                    -1.1498818503948878
                ],
                [
                    1.2034935678481593,
                    0.8628293779409772,
                    0.21187487264403393,
                    -0.3820509388769545,
                    0.9640191645236038,
                    0.1266632959959642,
                    -0.610755365690771,
                    -0.14697244290447198,
                    -0.2880396346907726,
                    0.8879013347990774
                ],
                [
                    -0.26543094053198424,
                    0.14624363379333863,
                    -0.6755022996648078,
                    1.3243840789610184,
                    -1.3585137686603141,
                    0.5889407981218533,
                    0.2710880051989853,
                    0.08591202777650125,
                    -1.9087414310321051,
                    1.4296901402355677
                ],
                [
                    -1.403404392189542,
                    -0.7147053708973464,
                    -1.8698360323177097,
                    -1.1659438081534772,
                    0.7052906518033324,
                    0.14349338336816236,
                    0.7554920726014781,
                    0.5266992708873381,
                    -2.1319207796984245,
                    0.026428892861307864
                ],
                [
                    -0.9963166540373931,
                    -1.5958563311515692,
                    -0.34151288838837285,
                    -1.3527974179153113,
                    -1.615277076972689,
                    0.42661924748740154,
                    -1.6874152463180316,
                    1.1761315395207816,
                    -0.09856857603927455,
                    -0.5794383800458186
                ],
                [
                    -0.07057381174228566,
                    0.35684327675209304,
                    0.09648567544026143,
                    -0.265818654124173,
                    -0.8338289364407415,
                    -0.8797953146445588,
                    1.3167456496295606,
                    1.5748500711717441,
                    0.34471086091679476,
                    1.1567225121420563
                ],
                [
                    -0.8308024239314743,
                    0.16532691372708314,
                    0.1910115691805936,
                    -1.270092245080448,
                    -1.830258365906437,
                    0.06898055314008412,
                    1.42476235384027,
                    -1.6723659873352705,
                    0.5464119928554881,
                    -0.8828456624715162
                ],
                [
                    2.966588049453705,
                    0.47179132174530897,
                    -0.6083464783561943,
                    -0.9761649243474378,
                    0.6065386720112802,
                    -0.2938634395365467,
                    -0.7603679641400857,
                    -1.6057123726130815,
                    1.1742906163330076,
                    0.5165171488652854
                ],
                [
                    0.15261014338269782,
                    -0.5575719923406729,
                    0.02777299542044278,
                    -0.21627046178760845,
                    -1.1586363271148865,
                    -0.6932399267615751,
                    -0.10550321924401951,
                    1.103534278648368,
                    0.4601434007238539,
                    1.9879524674710314
                ],
                [
                    -1.1828147152731143,
                    -0.6972816701920199,
                    0.4343544015426452,
                    0.1406166170743828,
                    0.33337234579580743,
                    -1.2958531592718014,
                    0.038432852938707476,
                    -0.3147296094468715,
                    1.414098211088148,
                    1.1691583621609996
                ],
                [
                    -1.4093838191974206,
                    -0.105335626797667,
                    1.3340424596623557,
                    -1.323003978024596,
                    -0.728332510330514,
                    1.6842622877459947,
                    -0.1509499183571689,
                    -1.0652732857891412,
                    0.8109475425870916,
                    2.1271419126680264
                ],
                [
                    1.2084568277075112,
                    -0.6419841981602002,
                    -0.3669315888399156,
                    -1.1153463735820812,
                    -0.9399583317004931,
                    0.5737680435812129,
                    -0.528827017562518,
                    -0.7418150130624989,
                    -0.11669797756256806,
                    0.41776233923483375
                ],
                [
                    0.48206255522905644,
                    0.5737613877407777,
                    -0.35467336952288925,
                    1.1559674286240715,
                    0.11599420200268244,
                    0.34219693169686455,
                    -1.7047703159943388,
                    -0.14539864737866467,
                    0.0007455942972207207,
                    -0.49841845945075514
                ],
                [
                    0.898189222848618,
                    -0.3644386753110021,
                    0.305722430918706,
                    -0.0500791535560022,
                    -1.6880917581028858,
                    -1.095623022258534,
                    -0.4729683334010172,
                    -0.015240586302580256,
                    0.13467029072451256,
                    -0.42444153875007645
                ],
                [
                    1.2755753031094716,
                    0.32370546219514035,
                    0.38786303688828677,
                    0.09084350387078509,
                    -0.1466752678824449,
                    0.20008547687952308,
                    -1.2576664278672276,
                    0.6123053607030293,
                    -1.4212517665432458,
                    -0.4180453872378761
                ],
                [
                    -0.538946608914214,
                    1.960852415812978,
                    0.512558969501382,
                    0.8743695141455281,
                    2.199678712972123,
                    -2.2787712140241814,
                    -1.5143630726266573,
                    -1.235527739478692,
                    -0.08471630742904193,
                    -1.4770909533503274
                ],
                [
                    1.449616684391813,
                    -0.4092042997401367,
                    0.9191023203373953,
                    1.3266714821887453,
                    -0.8801443710096779,
                    -1.244603074386317,
                    -0.25365942516275747,
                    1.119993869607603,
                    1.9275289084613687,
                    0.7160605149225137
                ],
                [
                    1.6249913585059157,
                    0.42871349577987194,
                    0.7728693826564647,
                    -0.24306734882721767,
                    -0.4492051171183222,
                    -1.0190055137630043,
                    1.1062392337682034,
                    -1.3533513666061394,
                    -0.7684068094600462,
                    -0.2501935701062861
                ],
                [
                    0.6793558586112051,
                    -0.32039254037409237,
                    0.6735268306468308,
                    -0.35130477792788445,
                    -0.22078737335511567,
                    -0.6924966544054879,
                    0.652335991941713,
                    -0.06901111252377493,
                    2.053060414823384,
                    -0.10335945639749773
                ],
                [
                    0.38886463322386666,
                    -0.21555208203517717,
                    0.2618314879909975,
                    0.296928885780969,
                    1.2384167936755055,
                    -0.9376013366284667,
                    0.39683035943819883,
                    -0.6748744363404245,
                    0.826854222672011,
                    0.2115028084504836
                ],
                [
                    -0.5172931801504282,
                    1.5653288760283128,
                    -1.4225597864056672,
                    1.1207492844553006,
                    -0.39343298168570506,
                    0.3026233388680571,
                    0.31218190211707286,
                    0.3926765244065289,
                    -0.11368332387445225,
                    0.9130818101696673
                ],
                [
                    -0.6475266135482947,
                    1.4801380911092963,
                    -0.21395477006981473,
                    -0.6137337468258837,
                    -1.7817129394875482,
                    -0.665786855071326,
                    -0.40287242282217756,
                    -0.7504805276754288,
                    2.148435976890145,
                    -0.5330083251654825
                ],
                [
                    1.666304500903742,
                    0.6382602811911186,
                    -0.9696216555899428,
                    1.0457188500471601,
                    1.7335647901546063,
                    -0.12755242295097483,
                    -0.6046669361712483,
                    0.4702833502238536,
                    -0.18068065447017667,
                    -2.7847816720936436
                ],
                [
                    0.7506003681065898,
                    -1.8090016400352111,
                    0.40482224656113475,
                    -0.5061197192308727,
                    0.7661827956032143,
                    -0.8752895074331463,
                    0.1808469462389053,
                    0.6878761865184091,
                    0.6096004569402059,
                    0.6786056178576644
                ],
                [
                    -1.756603728266192,
                    0.4092090346971461,
                    0.26607560745388953,
                    0.5723520026241323,
                    0.01327259635272644,
                    0.06666490854809988,
                    0.9798215753487174,
                    -1.4243154904710784,
                    -1.5076180805401045,
                    -0.4071423517707433
                ],
                [
                    -0.5814852107306867,
                    0.5984927269914071,
                    -0.7245913510539447,
                    0.20387997887266446,
                    -0.35837702749291706,
                    -0.5289551733358142,
                    -0.08430529847425375,
                    0.9676545378274969,
                    0.6922876292236628,
                    0.8398952766215776
                ],
                [
                    0.1615610485577189,
                    -0.28119765427678134,
                    1.1026316628091157,
                    -0.6688867925298815,
                    -0.01901243675143613,
                    0.4722088579647394,
                    -0.05562602127384311,
                    1.4395922025722259,
                    -2.0828485101586733,
                    -1.1922499503922306
                ],
                [
                    -0.9498985462766472,
                    1.1700514962621944,
                    -1.3389795091590224,
                    1.5718617540076607,
                    -0.5722791527294246,
                    0.3958626085912281,
                    -0.6086470335534288,
                    -0.6522652140492035,
                    0.681963425615412,
                    -0.4107892509919508
                ],
                [
                    1.4284537511098554,
                    0.13231620282659726,
                    -1.098870287717566,
                    0.4500435652765999,
                    0.3479990755330352,
                    1.7113832109413742,
                    1.1520840231180154,
                    0.2294390348547221,
                    1.725325502459024,
                    1.2987283318509324
                ],
                [
                    -1.7615994357347657,
                    0.048528329238149905,
                    -0.7162597894153554,
                    -0.2516104444347111,
                    0.4841618171889175,
                    -0.5870562274782105,
                    0.09477939204017073,
                    0.31446347962901205,
                    -0.12144997129592021,
                    0.6664525769979087
                ],
                [
                    1.3683281320655079,
                    -0.7608553723049949,
                    -2.243350800850733,
                    0.06780689856847495,
                    1.7064566440486406,
                    -0.17670704064429713,
                    -1.0979137081973462,
                    -0.7352038168481101,
                    -0.4941993351305837,
                    0.10254716458585172
                ],
                [
                    0.960305022221491,
                    1.217839747058509,
                    -0.7875297126503873,
                    -1.3190337190482984,
                    -1.1624417346464722,
                    -1.2270306676235352,
                    0.8031364918375457,
                    1.9404555051919596,
                    0.9130171557845216,
                    -0.4078447881333931
                ],
                [
                    -0.1942202579509221,
                    -0.5428416234401509,
                    -0.9457184175548106,
                    -1.692230853422788,
                    0.42958071613503235,
                    1.6423978999555877,
                    0.3246775951357303,
                    -2.7186791896606595,
                    -0.32011390337578133,
                    0.9581326828638544
                ],
                [
                    -0.447411006885309,
                    -0.11919418974230864,
                    0.8391301278828237,
                    -0.14111508964357694,
                    -0.5833964118260128,
                    -0.13878086641450552,
                    -0.055273615307485584,
                    -2.62174232929567,
                    0.3487558418249302,
                    1.3133312757003974
                ],
                [
                    1.3603415426218268,
                    -0.34750741334989504,
                    0.42320228715106784,
                    -0.44697149331059477,
                    -0.29941508285965324,
                    -1.7623704608682775,
                    -0.238256671815493,
                    -0.037453384183726436,
                    0.027810565666211182,
                    -0.16217775455308442
                ],
                [
                    -1.458867058639331,
                    -0.7632441713916209,
                    1.261786927178116,
                    -0.38363613959955256,
                    0.607260997014413,
                    1.7453952876938301,
                    -1.6037571816027183,
                    -0.004671869420903004,
                    -1.4168675048176753,
                    -0.6182625864815087
                ],
                [
                    -0.6953404470617497,
                    2.727904097426274,
                    0.3828249250688726,
                    1.9310449191833805,
                    -0.23293129319757006,
                    -0.9152334845405732,
                    -0.3209819296278849,
                    -0.9042846054106805,
                    -0.2339722295765334,
                    -0.5394126354476003
                ],
                [
                    0.7183850882047087,
                    -1.984829224111173,
                    -0.26258206177948173,
                    0.5663536203244885,
                    -0.06616786455086808,
                    0.3159885908163078,
                    -0.792317699266033,
                    0.29387886254945667,
                    -0.17703843107575137,
                    -1.4078899422142583
                ],
                [
                    1.6845781427464277,
                    1.0091229639405106,
                    1.1809114541732986,
                    0.06955390996420574,
                    1.3291092515177885,
                    0.08624338257124432,
                    0.809865440426601,
                    -2.0256961919694643,
                    0.6290797811464713,
                    0.352309784721196
                ],
                [
                    -0.32338552683147415,
                    -0.23100107504373218,
                    -0.4421682130766011,
                    -1.053671355246001,
                    -0.17966084243592378,
                    0.41893664431679795,
                    -1.3053098283103253,
                    -0.335022516434169,
                    0.8991854737157812,
                    -0.4899224004403955
                ],
                [
                    -1.1240117802632321,
                    1.8736051067436283,
                    0.009688067047257084,
                    0.9579976669995615,
                    -0.24974800232786792,
                    1.3577157613836166,
                    0.05182641912172827,
                    0.20286239941341588,
                    -0.9368096019610278,
                    -0.30980805183919236
                ],
                [
                    0.39969356158530983,
                    -0.19358277764077206,
                    0.3291528147776144,
                    -0.30453899220857267,
                    0.17596841377040973,
                    -0.21112347839672974,
                    0.22290392406491305,
                    -1.9622931300635915,
                    0.7871510155149538,
                    -0.9695651264090732
                ],
                [
                    0.9532316879631376,
                    0.8260954949818057,
                    -1.0351363974593086,
                    -0.6586309640726392,
                    -2.2822195015413738,
                    -0.8910838635934618,
                    -0.7771196685325227,
                    1.1040314721090458,
                    0.7960076813010283,
                    0.2499959943306009
                ],
                [
                    0.7425255051253071,
                    0.0842245366237281,
                    -0.03348254254382532,
                    -0.37399547508296066,
                    -0.1875639457070035,
                    0.7104148776925205,
                    -0.4923163479206103,
                    0.622091507615665,
                    -0.3793449490071122,
                    -0.3396487707056965
                ],
                [
                    -0.08919459661842745,
                    -1.3554606081029301,
                    1.8813287989168972,
                    0.4455952193920059,
                    0.4531035574228159,
                    1.6290886564232396,
                    1.7382491113554792,
                    0.08561052164203425,
                    -0.9152671624235544,
                    1.8685202418943345
                ],
                [
                    -0.11476745673675201,
                    -0.08218534354421166,
                    1.14302963811013,
                    1.0576878602546502,
                    -0.4198265089530709,
                    -0.06464805306736324,
                    2.206426593673738,
                    0.31798664988700226,
                    0.552986329360452,
                    -1.440441820411325
                ],
                [
                    1.3983451119003572,
                    -0.7461588700324401,
                    0.2073837109066486,
                    0.3795423829323322,
                    -0.9830668512800554,
                    -0.41854542233595354,
                    2.3938843352721504,
                    -0.468698850204976,
                    -0.0913005772223048,
                    -2.624287666048753
                ],
                [
                    0.6396325020918154,
                    -0.914605089069861,
                    -0.18344411719765635,
                    -0.6743883848119351,
                    -1.0615844717215162,
                    0.7903697545098812,
                    0.8461707618485174,
                    -0.9197109397463133,
                    0.39799199360474086,
                    -0.45208119225310917
                ],
                [
                    1.2880911414584204,
                    1.9368939924373019,
                    0.34646274535854377,
                    -1.5553227985678255,
                    -0.8365448462994137,
                    -0.6330835942804712,
                    2.32734999181734,
                    -0.32911079601388843,
                    0.02223050523854992,
                    0.5645369120136959
                ],
                [
                    1.4473398938138013,
                    2.5850252567481746,
                    0.44350414196692506,
                    1.4615007302035494,
                    -1.896980598257781,
                    1.1008237466272883,
                    -1.5139899249033077,
                    0.4198689993761478,
                    1.2499820856940587,
                    0.11109988202982339
                ],
                [
                    -0.40948574296174817,
                    -1.1828442483599204,
                    -2.248659875419526,
                    1.5119263941942045,
                    -0.836506565290649,
                    0.25914048121536903,
                    1.3628353157356896,
                    -0.8881476825224663,
                    0.8939683110645315,
                    0.29070025188827436
                ],
                [
                    0.10353078049161556,
                    -0.2876500162939172,
                    1.5539650375181684,
                    -0.0946245141760967,
                    -0.1880219859561037,
                    -0.24406810730965386,
                    -1.244806079423954,
                    1.7590429353406487,
                    0.45517061524142566,
                    1.6909005397752233
                ],
                [
                    -1.3767379364596528,
                    0.40405880686219536,
                    -0.9558844489143905,
                    0.19824359888412607,
                    1.0748735924838166,
                    0.6657040226311342,
                    -0.8654753123729477,
                    0.9763706475354542,
                    1.399302800325383,
                    0.9545309633151159
                ],
                [
                    1.4066478782426328,
                    -0.07881926450105263,
                    -0.06560528999888335,
                    0.1510660290877213,
                    1.0627933708918116,
                    0.6859204973150367,
                    -0.40751136246219644,
                    -1.170154063575984,
                    0.6006852867867788,
                    -0.8006782833404621
                ],
                [
                    -0.9719959733924627,
                    -1.0050552899657141,
                    0.2652441818722835,
                    -2.589950399997819,
                    0.014374291188654797,
                    0.6315846905048651,
                    -0.8294451018924669,
                    0.30984326434020254,
                    -0.7193792223469553,
                    0.09638360500788488
                ],
                [
                    -1.2432645473816646,
                    0.07341571892845919,
                    -0.004792419529359835,
                    0.09899713722746241,
                    -1.035687310055794,
                    -0.8701122645728323,
                    0.9681974189787653,
                    0.5451265625024155,
                    -0.237859239088306,
                    0.5956274190268995
                ],
                [
                    -0.2472471085015738,
                    0.5745048101760564,
                    0.5059374551516963,
                    0.2708282850236251,
                    0.14675714549746158,
                    -1.3700050600377545,
                    0.05399183771263826,
                    -1.9896978952580853,
                    -0.4152461847551686,
                    0.08558210232602574
                ],
                [
                    -0.4684149684520481,
                    -0.7227145024353786,
                    -1.2512139626539363,
                    0.04052470689389055,
                    0.33678692341922783,
                    0.6606819095766113,
                    0.7144546348240564,
                    -0.025632016149588932,
                    -1.663734334567978,
                    -2.8381511694751747
                ],
                [
                    -0.9041742586691627,
                    1.5449749879633052,
                    0.20335587713741152,
                    -0.30799263503835084,
                    -0.34950662684810413,
                    -0.5131854055718591,
                    1.0117734482677092,
                    0.3098185795266024,
                    0.7787056694095885,
                    -0.6148113710415287
                ],
                [
                    -0.14062441222252425,
                    -1.537043363422153,
                    0.6730453817214088,
                    0.37557141449103126,
                    0.5115496067774148,
                    -0.46609174348436805,
                    -0.7254848998891091,
                    0.1342876835609378,
                    -0.7553433733189571,
                    1.4380812579666487
                ],
                [
                    0.8922735438352406,
                    -0.28780763081341143,
                    0.0724634822818735,
                    0.04117146397633322,
                    0.5728045684565215,
                    -0.7321299467390842,
                    0.7157678006393504,
                    -1.950631936305056,
                    0.10260755281691628,
                    1.000625124754714
                ],
                [
                    -1.4510665216846215,
                    -0.2206034491110763,
                    0.37242380648081036,
                    1.136162143072072,
                    -0.6168316764681117,
                    -0.526467361687653,
                    -1.7211704698245713,
                    0.5538638686872582,
                    -0.2024989015601487,
                    -1.7239637667983634
                ],
                [
                    1.139907583552455,
                    -1.626713933647621,
                    -0.9251429797973448,
                    -0.0926803672029359,
                    -0.9763412186767538,
                    -0.7809937224415031,
                    -0.26468759713182366,
                    -1.5709923840033546,
                    1.2245453529154209,
                    1.0441062586023504
                ],
                [
                    1.196291555956401,
                    -1.6273359211817278,
                    0.5712594193515772,
                    0.2357085431779603,
                    -0.4348084033225779,
                    -0.33562953445153193,
                    0.11576805116637773,
                    -0.18768276379485688,
                    0.6661173917964548,
                    -1.1186998447228091
                ],
                [
                    0.1761849789370931,
                    -0.9113023824554981,
                    0.628055888273501,
                    0.9574891451505161,
                    -0.010419144988410196,
                    -0.5211613023054869,
                    0.9894497383490517,
                    0.6744427783186286,
                    0.6360804917397934,
                    -0.7908096347855882
                ],
                [
                    0.020538727020490723,
                    -2.069073312932805,
                    -0.9750837506674582,
                    1.0334505068153603,
                    1.285814061684617,
                    -0.9772784772812826,
                    -0.29721792090997706,
                    -1.3176367350827545,
                    -1.1413291902280933,
                    -0.19668773727074781
                ],
                [
                    -2.0007388454049075,
                    -0.8655386085643654,
                    -0.36424949516681115,
                    -0.4496963293366462,
                    0.6646293307772007,
                    -0.8092573380597059,
                    1.1637044004719805,
                    0.24538007409102505,
                    -0.8383517570884517,
                    -0.17972342261870294
                ],
                [
                    -0.020541468068963262,
                    -0.8153976643487347,
                    -1.3247682387414526,
                    -0.8341930270627238,
                    1.6603962665693737,
                    -0.3793839904772678,
                    -0.3722182029105037,
                    -0.42344268258954704,
                    -0.3038402172757124,
                    -1.204367721295259
                ],
                [
                    -0.20459413461090573,
                    1.1220684253779736,
                    1.1404476962145755,
                    0.11006880372561478,
                    0.2924398568661549,
                    -0.0653241533323948,
                    1.3673611321723198,
                    0.6810046361625967,
                    1.4598011834898779,
                    -0.6015626104492124
                ],
                [
                    -0.21140380200969444,
                    0.5842788167497611,
                    -0.5145224345803617,
                    0.5138078725261634,
                    0.9224479533126636,
                    -0.015757075877966726,
                    0.9978927041303395,
                    1.129005758439072,
                    0.28777708928770385,
                    0.16241572251468564
                ],
                [
                    1.07524629865005,
                    -0.21447454041174568,
                    -0.07900936762148156,
                    0.19508709802883653,
                    -0.6668989559657074,
                    -0.9169832629741975,
                    -1.3625275462018196,
                    0.4783669050575986,
                    -2.469446264369697,
                    0.5955577993277839
                ],
                [
                    2.2340579925771293,
                    1.1944998623411587,
                    0.3599413613803658,
                    -0.5566153968066647,
                    0.752485208707926,
                    -0.4404018011795526,
                    -2.0450777844428583,
                    0.51033580309152,
                    0.32404101000551294,
                    -0.45566585428775885
                ],
                [
                    -0.5285542902569107,
                    -1.3067138224713075,
                    0.07494801032929237,
                    0.7341287873965919,
                    0.2699987644670358,
                    0.10648070193384596,
                    -2.027624453804543,
                    -0.7173286349035111,
                    0.9644249452390138,
                    0.16706499215106216
                ],
                [
                    -0.6146639859742232,
                    -1.5887571028988383,
                    -1.6168310400973283,
                    -1.6050270290561812,
                    -2.145016430380908,
                    2.1420650520684577,
                    -0.813745156719051,
                    -1.0605609356468337,
                    -0.46510453299815285,
                    0.4984031147025318
                ],
                [
                    0.4158106604441798,
                    2.5064822232309183,
                    -1.3701579504130643,
                    -0.3259672345491815,
                    0.0011182799279381528,
                    1.1005431348551271,
                    0.597300652925414,
                    -0.6474061957159685,
                    0.12383004211540467,
                    -0.48481456927864885
                ],
                [
                    0.3154723354543372,
                    -1.0611133929292562,
                    -1.3932039195048411,
                    -0.15058706117524867,
                    -0.07892691622858074,
                    0.9417148411094468,
                    0.4941640250860873,
                    -0.17031519353320404,
                    0.07656480458847652,
                    -0.8005895359732443
                ],
                [
                    -0.08740780752673559,
                    0.925384760063799,
                    -1.1585816473149109,
                    -1.3698540755649358,
                    1.459342948203468,
                    -0.44328006648799406,
                    -1.0807948422123006,
                    2.661730080000697,
                    -0.36285199297463006,
                    0.022737714835268128
                ],
                [
                    0.0246877000896452,
                    -0.9098384174277531,
                    -0.8342143171040588,
                    -0.08983301108116401,
                    -2.6583544630505043,
                    1.0119943589100608,
                    0.12563305522723905,
                    0.5144898482602517,
                    0.97628368998447,
                    -1.8721443022962918
                ],
                [
                    -1.1184277576307453,
                    0.6062615365776999,
                    -0.884509382720376,
                    1.1016501454870675,
                    1.4353158059989768,
                    -2.2730262714078675,
                    1.6936424657877858,
                    0.5951776093501987,
                    -0.9169499869362087,
                    1.254181406932051
                ],
                [
                    -0.29655046327361456,
                    -0.7361013496713982,
                    1.3694271728671423,
                    -0.15426438497918452,
                    1.042670799417326,
                    0.19469271678232883,
                    0.2412618268181759,
                    0.28782762077429896,
                    -0.25005247653797213,
                    -0.21735136449282522
                ],
                [
                    -1.3169856871837955,
                    0.10258175693631652,
                    0.5500052873650807,
                    -1.6404962359188162,
                    -0.9110115213386493,
                    1.1388804929208167,
                    -0.2088969329952875,
                    -0.3831383602101118,
                    -1.1320989051201424,
                    -2.054673037101792
                ],
                [
                    0.1378419239652299,
                    -0.6619648003662281,
                    1.1692380552816106,
                    -0.21634258225552072,
                    0.33943291199998643,
                    0.06458345716399953,
                    -0.41146260252496314,
                    0.2081139655773891,
                    0.9750455045477293,
                    -1.9012366598480408
                ],
                [
                    0.5115551541277155,
                    -1.1217172776122937,
                    0.10839333178476264,
                    0.040995631598322674,
                    -0.9835685897821039,
                    -0.882849106656878,
                    -0.4785708844684759,
                    1.629872700290658,
                    -0.9573029096679875,
                    1.4074226191290236
                ],
                [
                    0.24197831682587842,
                    0.9102526328533049,
                    0.5898071262796326,
                    1.0837758014722516,
                    0.20937072392386535,
                    0.8036419250301534,
                    1.1622983020562774,
                    0.3582564128299713,
                    0.2128158782914433,
                    -0.5185621049891692
                ],
                [
                    0.4208622118996243,
                    0.20765691875950487,
                    1.2709581072258596,
                    1.2811167166702455,
                    1.1725416345785697,
                    -2.0234495279022564,
                    -0.8889996693668112,
                    0.3320345328210503,
                    -0.9620049160829918,
                    0.4983339165774573
                ],
                [
                    0.4203938049009634,
                    0.0792176978259906,
                    -0.6242249376148161,
                    -1.7190293619573096,
                    -0.39076005102331857,
                    1.1516946380937965,
                    0.22876025306661263,
                    0.4010068684796294,
                    0.018066410128732443,
                    1.2278298000946546
                ],
                [
                    1.658601644480086,
                    0.1815989149153691,
                    -0.24953456017017658,
                    -1.038837901196557,
                    -1.4164551292420993,
                    0.9289769961668879,
                    -0.12774359585479853,
                    -0.8007725140132951,
                    1.7039503707750598,
                    0.0907836889034534
                ],
                [
                    -1.0000038198488435,
                    -0.4226338068112389,
                    0.05874847198360162,
                    -0.31773982072282897,
                    0.031223525680999543,
                    0.030561470180859522,
